digraph Tree {
node [shape=box, style="filled, rounded", color="black", fontname=helvetica] ;
edge [fontname=helvetica] ;
0 [label=<confirmed &le; 3669.0<br/>gini = 0.773<br/>samples = 85<br/>value = [30, 2, 31, 42, 5, 4, 20]<br/>class = Afr>, fillcolor="#eafcfc"] ;
1 [label=<recovered &le; 767.5<br/>gini = 0.673<br/>samples = 33<br/>value = [24, 0, 7, 7, 0, 0, 12]<br/>class = AP>, fillcolor="#f7d7c0"] ;
0 -> 1 [labeldistance=2.5, labelangle=45, headlabel="True"] ;
2 [label=<deaths &le; 7.5<br/>gini = 0.689<br/>samples = 16<br/>value = [7, 0, 6, 2, 0, 0, 11]<br/>class = ME>, fillcolor="#fad5e6"] ;
1 -> 2 ;
3 [label=<confirmed &le; 286.0<br/>gini = 0.595<br/>samples = 8<br/>value = [3, 0, 6, 0, 0, 0, 2]<br/>class = Arab>, fillcolor="#b5f5bc"] ;
2 -> 3 ;
4 [label=<deaths &le; 1.0<br/>gini = 0.667<br/>samples = 4<br/>value = [2, 0, 2, 0, 0, 0, 2]<br/>class = AP>, fillcolor="#ffffff"] ;
3 -> 4 ;
5 [label=<confirmed &le; 120.0<br/>gini = 0.5<br/>samples = 3<br/>value = [2, 0, 2, 0, 0, 0, 0]<br/>class = AP>, fillcolor="#ffffff"] ;
4 -> 5 ;
6 [label=<gini = 0.0<br/>samples = 1<br/>value = [0, 0, 2, 0, 0, 0, 0]<br/>class = Arab>, fillcolor="#39e54d"] ;
5 -> 6 ;
7 [label=<gini = 0.0<br/>samples = 2<br/>value = [2, 0, 0, 0, 0, 0, 0]<br/>class = AP>, fillcolor="#e58139"] ;
5 -> 7 ;
8 [label=<gini = 0.0<br/>samples = 1<br/>value = [0, 0, 0, 0, 0, 0, 2]<br/>class = ME>, fillcolor="#e53986"] ;
4 -> 8 ;
9 [label=<recovered &le; 316.5<br/>gini = 0.32<br/>samples = 4<br/>value = [1, 0, 4, 0, 0, 0, 0]<br/>class = Arab>, fillcolor="#6aec79"] ;
3 -> 9 ;
10 [label=<deaths &le; 2.0<br/>gini = 0.5<br/>samples = 2<br/>value = [1, 0, 1, 0, 0, 0, 0]<br/>class = AP>, fillcolor="#ffffff"] ;
9 -> 10 ;
11 [label=<gini = 0.0<br/>samples = 1<br/>value = [1, 0, 0, 0, 0, 0, 0]<br/>class = AP>, fillcolor="#e58139"] ;
10 -> 11 ;
12 [label=<gini = 0.0<br/>samples = 1<br/>value = [0, 0, 1, 0, 0, 0, 0]<br/>class = Arab>, fillcolor="#39e54d"] ;
10 -> 12 ;
13 [label=<gini = 0.0<br/>samples = 2<br/>value = [0, 0, 3, 0, 0, 0, 0]<br/>class = Arab>, fillcolor="#39e54d"] ;
9 -> 13 ;
14 [label=<deaths &le; 27.5<br/>gini = 0.551<br/>samples = 8<br/>value = [4, 0, 0, 2, 0, 0, 9]<br/>class = ME>, fillcolor="#f3a5c8"] ;
2 -> 14 ;
15 [label=<recovered &le; 187.0<br/>gini = 0.298<br/>samples = 5<br/>value = [2, 0, 0, 0, 0, 0, 9]<br/>class = ME>, fillcolor="#eb65a1"] ;
14 -> 15 ;
16 [label=<recovered &le; 161.0<br/>gini = 0.48<br/>samples = 3<br/>value = [2, 0, 0, 0, 0, 0, 3]<br/>class = ME>, fillcolor="#f6bdd7"] ;
15 -> 16 ;
17 [label=<gini = 0.0<br/>samples = 2<br/>value = [0, 0, 0, 0, 0, 0, 3]<br/>class = ME>, fillcolor="#e53986"] ;
16 -> 17 ;
18 [label=<gini = 0.0<br/>samples = 1<br/>value = [2, 0, 0, 0, 0, 0, 0]<br/>class = AP>, fillcolor="#e58139"] ;
16 -> 18 ;
19 [label=<gini = 0.0<br/>samples = 2<br/>value = [0, 0, 0, 0, 0, 0, 6]<br/>class = ME>, fillcolor="#e53986"] ;
15 -> 19 ;
20 [label=<deaths &le; 37.5<br/>gini = 0.5<br/>samples = 3<br/>value = [2, 0, 0, 2, 0, 0, 0]<br/>class = AP>, fillcolor="#ffffff"] ;
14 -> 20 ;
21 [label=<gini = 0.0<br/>samples = 1<br/>value = [1, 0, 0, 0, 0, 0, 0]<br/>class = AP>, fillcolor="#e58139"] ;
20 -> 21 ;
22 [label=<confirmed &le; 975.5<br/>gini = 0.444<br/>samples = 2<br/>value = [1, 0, 0, 2, 0, 0, 0]<br/>class = Afr>, fillcolor="#9cf2f0"] ;
20 -> 22 ;
23 [label=<gini = 0.0<br/>samples = 1<br/>value = [0, 0, 0, 2, 0, 0, 0]<br/>class = Afr>, fillcolor="#39e5e2"] ;
22 -> 23 ;
24 [label=<gini = 0.0<br/>samples = 1<br/>value = [1, 0, 0, 0, 0, 0, 0]<br/>class = AP>, fillcolor="#e58139"] ;
22 -> 24 ;
25 [label=<confirmed &le; 2434.0<br/>gini = 0.451<br/>samples = 17<br/>value = [17, 0, 1, 5, 0, 0, 1]<br/>class = AP>, fillcolor="#efaf82"] ;
1 -> 25 ;
26 [label=<recovered &le; 1682.0<br/>gini = 0.459<br/>samples = 10<br/>value = [9, 0, 0, 5, 0, 0, 0]<br/>class = AP>, fillcolor="#f3c7a7"] ;
25 -> 26 ;
27 [label=<recovered &le; 932.5<br/>gini = 0.298<br/>samples = 7<br/>value = [9, 0, 0, 2, 0, 0, 0]<br/>class = AP>, fillcolor="#eb9d65"] ;
26 -> 27 ;
28 [label=<deaths &le; 23.0<br/>gini = 0.444<br/>samples = 4<br/>value = [4, 0, 0, 2, 0, 0, 0]<br/>class = AP>, fillcolor="#f2c09c"] ;
27 -> 28 ;
29 [label=<gini = 0.0<br/>samples = 1<br/>value = [0, 0, 0, 1, 0, 0, 0]<br/>class = Afr>, fillcolor="#39e5e2"] ;
28 -> 29 ;
30 [label=<confirmed &le; 1034.5<br/>gini = 0.32<br/>samples = 3<br/>value = [4, 0, 0, 1, 0, 0, 0]<br/>class = AP>, fillcolor="#eca06a"] ;
28 -> 30 ;
31 [label=<deaths &le; 64.5<br/>gini = 0.5<br/>samples = 2<br/>value = [1, 0, 0, 1, 0, 0, 0]<br/>class = AP>, fillcolor="#ffffff"] ;
30 -> 31 ;
32 [label=<gini = 0.0<br/>samples = 1<br/>value = [0, 0, 0, 1, 0, 0, 0]<br/>class = Afr>, fillcolor="#39e5e2"] ;
31 -> 32 ;
33 [label=<gini = 0.0<br/>samples = 1<br/>value = [1, 0, 0, 0, 0, 0, 0]<br/>class = AP>, fillcolor="#e58139"] ;
31 -> 33 ;
34 [label=<gini = 0.0<br/>samples = 1<br/>value = [3, 0, 0, 0, 0, 0, 0]<br/>class = AP>, fillcolor="#e58139"] ;
30 -> 34 ;
35 [label=<gini = 0.0<br/>samples = 3<br/>value = [5, 0, 0, 0, 0, 0, 0]<br/>class = AP>, fillcolor="#e58139"] ;
27 -> 35 ;
36 [label=<gini = 0.0<br/>samples = 3<br/>value = [0, 0, 0, 3, 0, 0, 0]<br/>class = Afr>, fillcolor="#39e5e2"] ;
26 -> 36 ;
37 [label=<confirmed &le; 3064.0<br/>gini = 0.34<br/>samples = 7<br/>value = [8, 0, 1, 0, 0, 0, 1]<br/>class = AP>, fillcolor="#eb9d65"] ;
25 -> 37 ;
38 [label=<gini = 0.0<br/>samples = 3<br/>value = [4, 0, 0, 0, 0, 0, 0]<br/>class = AP>, fillcolor="#e58139"] ;
37 -> 38 ;
39 [label=<recovered &le; 2207.0<br/>gini = 0.5<br/>samples = 4<br/>value = [4, 0, 1, 0, 0, 0, 1]<br/>class = AP>, fillcolor="#efb388"] ;
37 -> 39 ;
40 [label=<gini = 0.0<br/>samples = 2<br/>value = [4, 0, 0, 0, 0, 0, 0]<br/>class = AP>, fillcolor="#e58139"] ;
39 -> 40 ;
41 [label=<deaths &le; 73.0<br/>gini = 0.5<br/>samples = 2<br/>value = [0, 0, 1, 0, 0, 0, 1]<br/>class = Arab>, fillcolor="#ffffff"] ;
39 -> 41 ;
42 [label=<gini = 0.0<br/>samples = 1<br/>value = [0, 0, 1, 0, 0, 0, 0]<br/>class = Arab>, fillcolor="#39e54d"] ;
41 -> 42 ;
43 [label=<gini = 0.0<br/>samples = 1<br/>value = [0, 0, 0, 0, 0, 0, 1]<br/>class = ME>, fillcolor="#e53986"] ;
41 -> 43 ;
44 [label=<confirmed &le; 353976.0<br/>gini = 0.724<br/>samples = 52<br/>value = [6, 2, 24, 35, 5, 4, 8]<br/>class = Afr>, fillcolor="#dbfafa"] ;
0 -> 44 [labeldistance=2.5, labelangle=-45, headlabel="False"] ;
45 [label=<confirmed &le; 7115.0<br/>gini = 0.69<br/>samples = 47<br/>value = [5, 2, 23, 35, 5, 2, 5]<br/>class = Afr>, fillcolor="#d3f9f9"] ;
44 -> 45 ;
46 [label=<recovered &le; 3206.5<br/>gini = 0.219<br/>samples = 5<br/>value = [0, 0, 1, 7, 0, 0, 0]<br/>class = Afr>, fillcolor="#55e9e6"] ;
45 -> 46 ;
47 [label=<deaths &le; 47.0<br/>gini = 0.5<br/>samples = 2<br/>value = [0, 0, 1, 1, 0, 0, 0]<br/>class = Arab>, fillcolor="#ffffff"] ;
46 -> 47 ;
48 [label=<gini = 0.0<br/>samples = 1<br/>value = [0, 0, 1, 0, 0, 0, 0]<br/>class = Arab>, fillcolor="#39e54d"] ;
47 -> 48 ;
49 [label=<gini = 0.0<br/>samples = 1<br/>value = [0, 0, 0, 1, 0, 0, 0]<br/>class = Afr>, fillcolor="#39e5e2"] ;
47 -> 49 ;
50 [label=<gini = 0.0<br/>samples = 3<br/>value = [0, 0, 0, 6, 0, 0, 0]<br/>class = Afr>, fillcolor="#39e5e2"] ;
46 -> 50 ;
51 [label=<recovered &le; 242179.0<br/>gini = 0.716<br/>samples = 42<br/>value = [5, 2, 22, 28, 5, 2, 5]<br/>class = Afr>, fillcolor="#e6fcfb"] ;
45 -> 51 ;
52 [label=<confirmed &le; 58556.5<br/>gini = 0.703<br/>samples = 41<br/>value = [5, 2, 22, 28, 3, 2, 5]<br/>class = Afr>, fillcolor="#e5fcfb"] ;
51 -> 52 ;
53 [label=<deaths &le; 233.5<br/>gini = 0.718<br/>samples = 23<br/>value = [5, 2, 15, 8, 2, 0, 2]<br/>class = Arab>, fillcolor="#caf8cf"] ;
52 -> 53 ;
54 [label=<confirmed &le; 7764.5<br/>gini = 0.602<br/>samples = 8<br/>value = [3, 1, 8, 0, 2, 0, 0]<br/>class = Arab>, fillcolor="#a5f3ae"] ;
53 -> 54 ;
55 [label=<gini = 0.0<br/>samples = 1<br/>value = [0, 0, 0, 0, 2, 0, 0]<br/>class = Latin>, fillcolor="#3956e5"] ;
54 -> 55 ;
56 [label=<recovered &le; 15024.5<br/>gini = 0.486<br/>samples = 7<br/>value = [3, 1, 8, 0, 0, 0, 0]<br/>class = Arab>, fillcolor="#91f19c"] ;
54 -> 56 ;
57 [label=<confirmed &le; 12980.5<br/>gini = 0.5<br/>samples = 3<br/>value = [3, 0, 3, 0, 0, 0, 0]<br/>class = AP>, fillcolor="#ffffff"] ;
56 -> 57 ;
58 [label=<recovered &le; 7938.5<br/>gini = 0.375<br/>samples = 2<br/>value = [1, 0, 3, 0, 0, 0, 0]<br/>class = Arab>, fillcolor="#7bee88"] ;
57 -> 58 ;
59 [label=<gini = 0.0<br/>samples = 1<br/>value = [1, 0, 0, 0, 0, 0, 0]<br/>class = AP>, fillcolor="#e58139"] ;
58 -> 59 ;
60 [label=<gini = 0.0<br/>samples = 1<br/>value = [0, 0, 3, 0, 0, 0, 0]<br/>class = Arab>, fillcolor="#39e54d"] ;
58 -> 60 ;
61 [label=<gini = 0.0<br/>samples = 1<br/>value = [2, 0, 0, 0, 0, 0, 0]<br/>class = AP>, fillcolor="#e58139"] ;
57 -> 61 ;
62 [label=<recovered &le; 33747.5<br/>gini = 0.278<br/>samples = 4<br/>value = [0, 1, 5, 0, 0, 0, 0]<br/>class = Arab>, fillcolor="#61ea71"] ;
56 -> 62 ;
63 [label=<gini = 0.0<br/>samples = 2<br/>value = [0, 0, 4, 0, 0, 0, 0]<br/>class = Arab>, fillcolor="#39e54d"] ;
62 -> 63 ;
64 [label=<recovered &le; 46178.0<br/>gini = 0.5<br/>samples = 2<br/>value = [0, 1, 1, 0, 0, 0, 0]<br/>class = EU>, fillcolor="#ffffff"] ;
62 -> 64 ;
65 [label=<gini = 0.0<br/>samples = 1<br/>value = [0, 1, 0, 0, 0, 0, 0]<br/>class = EU>, fillcolor="#b7e539"] ;
64 -> 65 ;
66 [label=<gini = 0.0<br/>samples = 1<br/>value = [0, 0, 1, 0, 0, 0, 0]<br/>class = Arab>, fillcolor="#39e54d"] ;
64 -> 66 ;
67 [label=<confirmed &le; 29471.0<br/>gini = 0.695<br/>samples = 15<br/>value = [2, 1, 7, 8, 0, 0, 2]<br/>class = Afr>, fillcolor="#f0fdfd"] ;
53 -> 67 ;
68 [label=<deaths &le; 259.5<br/>gini = 0.597<br/>samples = 9<br/>value = [2, 0, 1, 7, 0, 0, 2]<br/>class = Afr>, fillcolor="#9cf2f0"] ;
67 -> 68 ;
69 [label=<gini = 0.0<br/>samples = 1<br/>value = [0, 0, 0, 3, 0, 0, 0]<br/>class = Afr>, fillcolor="#39e5e2"] ;
68 -> 69 ;
70 [label=<recovered &le; 8338.0<br/>gini = 0.691<br/>samples = 8<br/>value = [2, 0, 1, 4, 0, 0, 2]<br/>class = Afr>, fillcolor="#c6f8f7"] ;
68 -> 70 ;
71 [label=<gini = 0.0<br/>samples = 1<br/>value = [0, 0, 0, 0, 0, 0, 2]<br/>class = ME>, fillcolor="#e53986"] ;
70 -> 71 ;
72 [label=<recovered &le; 9436.5<br/>gini = 0.571<br/>samples = 7<br/>value = [2, 0, 1, 4, 0, 0, 0]<br/>class = Afr>, fillcolor="#b0f5f3"] ;
70 -> 72 ;
73 [label=<gini = 0.0<br/>samples = 2<br/>value = [0, 0, 0, 2, 0, 0, 0]<br/>class = Afr>, fillcolor="#39e5e2"] ;
72 -> 73 ;
74 [label=<confirmed &le; 16922.5<br/>gini = 0.64<br/>samples = 5<br/>value = [2, 0, 1, 2, 0, 0, 0]<br/>class = AP>, fillcolor="#ffffff"] ;
72 -> 74 ;
75 [label=<confirmed &le; 14026.5<br/>gini = 0.5<br/>samples = 2<br/>value = [1, 0, 1, 0, 0, 0, 0]<br/>class = AP>, fillcolor="#ffffff"] ;
74 -> 75 ;
76 [label=<gini = 0.0<br/>samples = 1<br/>value = [1, 0, 0, 0, 0, 0, 0]<br/>class = AP>, fillcolor="#e58139"] ;
75 -> 76 ;
77 [label=<gini = 0.0<br/>samples = 1<br/>value = [0, 0, 1, 0, 0, 0, 0]<br/>class = Arab>, fillcolor="#39e54d"] ;
75 -> 77 ;
78 [label=<deaths &le; 427.0<br/>gini = 0.444<br/>samples = 3<br/>value = [1, 0, 0, 2, 0, 0, 0]<br/>class = Afr>, fillcolor="#9cf2f0"] ;
74 -> 78 ;
79 [label=<gini = 0.0<br/>samples = 1<br/>value = [0, 0, 0, 1, 0, 0, 0]<br/>class = Afr>, fillcolor="#39e5e2"] ;
78 -> 79 ;
80 [label=<recovered &le; 15651.0<br/>gini = 0.5<br/>samples = 2<br/>value = [1, 0, 0, 1, 0, 0, 0]<br/>class = AP>, fillcolor="#ffffff"] ;
78 -> 80 ;
81 [label=<gini = 0.0<br/>samples = 1<br/>value = [1, 0, 0, 0, 0, 0, 0]<br/>class = AP>, fillcolor="#e58139"] ;
80 -> 81 ;
82 [label=<gini = 0.0<br/>samples = 1<br/>value = [0, 0, 0, 1, 0, 0, 0]<br/>class = Afr>, fillcolor="#39e5e2"] ;
80 -> 82 ;
83 [label=<recovered &le; 26185.5<br/>gini = 0.406<br/>samples = 6<br/>value = [0, 1, 6, 1, 0, 0, 0]<br/>class = Arab>, fillcolor="#72ec80"] ;
67 -> 83 ;
84 [label=<gini = 0.0<br/>samples = 1<br/>value = [0, 1, 0, 0, 0, 0, 0]<br/>class = EU>, fillcolor="#b7e539"] ;
83 -> 84 ;
85 [label=<recovered &le; 31879.0<br/>gini = 0.245<br/>samples = 5<br/>value = [0, 0, 6, 1, 0, 0, 0]<br/>class = Arab>, fillcolor="#5ae96b"] ;
83 -> 85 ;
86 [label=<gini = 0.0<br/>samples = 2<br/>value = [0, 0, 4, 0, 0, 0, 0]<br/>class = Arab>, fillcolor="#39e54d"] ;
85 -> 86 ;
87 [label=<confirmed &le; 38964.0<br/>gini = 0.444<br/>samples = 3<br/>value = [0, 0, 2, 1, 0, 0, 0]<br/>class = Arab>, fillcolor="#9cf2a6"] ;
85 -> 87 ;
88 [label=<gini = 0.0<br/>samples = 1<br/>value = [0, 0, 0, 1, 0, 0, 0]<br/>class = Afr>, fillcolor="#39e5e2"] ;
87 -> 88 ;
89 [label=<gini = 0.0<br/>samples = 2<br/>value = [0, 0, 2, 0, 0, 0, 0]<br/>class = Arab>, fillcolor="#39e54d"] ;
87 -> 89 ;
90 [label=<confirmed &le; 84105.5<br/>gini = 0.575<br/>samples = 18<br/>value = [0, 0, 7, 20, 1, 2, 3]<br/>class = Afr>, fillcolor="#9cf2f0"] ;
52 -> 90 ;
91 [label=<confirmed &le; 76512.0<br/>gini = 0.231<br/>samples = 7<br/>value = [0, 0, 0, 13, 0, 0, 2]<br/>class = Afr>, fillcolor="#57e9e6"] ;
90 -> 91 ;
92 [label=<gini = 0.0<br/>samples = 4<br/>value = [0, 0, 0, 10, 0, 0, 0]<br/>class = Afr>, fillcolor="#39e5e2"] ;
91 -> 92 ;
93 [label=<recovered &le; 26033.0<br/>gini = 0.48<br/>samples = 3<br/>value = [0, 0, 0, 3, 0, 0, 2]<br/>class = Afr>, fillcolor="#bdf6f5"] ;
91 -> 93 ;
94 [label=<gini = 0.0<br/>samples = 1<br/>value = [0, 0, 0, 3, 0, 0, 0]<br/>class = Afr>, fillcolor="#39e5e2"] ;
93 -> 94 ;
95 [label=<gini = 0.0<br/>samples = 2<br/>value = [0, 0, 0, 0, 0, 0, 2]<br/>class = ME>, fillcolor="#e53986"] ;
93 -> 95 ;
96 [label=<confirmed &le; 190647.5<br/>gini = 0.679<br/>samples = 11<br/>value = [0, 0, 7, 7, 1, 2, 1]<br/>class = Arab>, fillcolor="#ffffff"] ;
90 -> 96 ;
97 [label=<confirmed &le; 126710.5<br/>gini = 0.711<br/>samples = 7<br/>value = [0, 0, 5, 2, 1, 2, 1]<br/>class = Arab>, fillcolor="#bdf6c4"] ;
96 -> 97 ;
98 [label=<recovered &le; 70498.0<br/>gini = 0.722<br/>samples = 4<br/>value = [0, 0, 1, 2, 0, 2, 1]<br/>class = Afr>, fillcolor="#ffffff"] ;
97 -> 98 ;
99 [label=<gini = 0.0<br/>samples = 1<br/>value = [0, 0, 0, 2, 0, 0, 0]<br/>class = Afr>, fillcolor="#39e5e2"] ;
98 -> 99 ;
100 [label=<recovered &le; 94113.5<br/>gini = 0.625<br/>samples = 3<br/>value = [0, 0, 1, 0, 0, 2, 1]<br/>class = NA>, fillcolor="#e5bdf6"] ;
98 -> 100 ;
101 [label=<deaths &le; 5309.0<br/>gini = 0.5<br/>samples = 2<br/>value = [0, 0, 1, 0, 0, 0, 1]<br/>class = Arab>, fillcolor="#ffffff"] ;
100 -> 101 ;
102 [label=<gini = 0.0<br/>samples = 1<br/>value = [0, 0, 1, 0, 0, 0, 0]<br/>class = Arab>, fillcolor="#39e54d"] ;
101 -> 102 ;
103 [label=<gini = 0.0<br/>samples = 1<br/>value = [0, 0, 0, 0, 0, 0, 1]<br/>class = ME>, fillcolor="#e53986"] ;
101 -> 103 ;
104 [label=<gini = 0.0<br/>samples = 1<br/>value = [0, 0, 0, 0, 0, 2, 0]<br/>class = NA>, fillcolor="#b139e5"] ;
100 -> 104 ;
105 [label=<recovered &le; 100169.5<br/>gini = 0.32<br/>samples = 3<br/>value = [0, 0, 4, 0, 1, 0, 0]<br/>class = Arab>, fillcolor="#6aec79"] ;
97 -> 105 ;
106 [label=<gini = 0.0<br/>samples = 2<br/>value = [0, 0, 4, 0, 0, 0, 0]<br/>class = Arab>, fillcolor="#39e54d"] ;
105 -> 106 ;
107 [label=<gini = 0.0<br/>samples = 1<br/>value = [0, 0, 0, 0, 1, 0, 0]<br/>class = Latin>, fillcolor="#3956e5"] ;
105 -> 107 ;
108 [label=<recovered &le; 176040.0<br/>gini = 0.408<br/>samples = 4<br/>value = [0, 0, 2, 5, 0, 0, 0]<br/>class = Afr>, fillcolor="#88efee"] ;
96 -> 108 ;
109 [label=<deaths &le; 16132.5<br/>gini = 0.5<br/>samples = 2<br/>value = [0, 0, 2, 2, 0, 0, 0]<br/>class = Arab>, fillcolor="#ffffff"] ;
108 -> 109 ;
110 [label=<gini = 0.0<br/>samples = 1<br/>value = [0, 0, 2, 0, 0, 0, 0]<br/>class = Arab>, fillcolor="#39e54d"] ;
109 -> 110 ;
111 [label=<gini = 0.0<br/>samples = 1<br/>value = [0, 0, 0, 2, 0, 0, 0]<br/>class = Afr>, fillcolor="#39e5e2"] ;
109 -> 111 ;
112 [label=<gini = 0.0<br/>samples = 2<br/>value = [0, 0, 0, 3, 0, 0, 0]<br/>class = Afr>, fillcolor="#39e5e2"] ;
108 -> 112 ;
113 [label=<gini = 0.0<br/>samples = 1<br/>value = [0, 0, 0, 0, 2, 0, 0]<br/>class = Latin>, fillcolor="#3956e5"] ;
51 -> 113 ;
114 [label=<confirmed &le; 4180951.5<br/>gini = 0.694<br/>samples = 5<br/>value = [1, 0, 1, 0, 0, 2, 3]<br/>class = ME>, fillcolor="#fad7e7"] ;
44 -> 114 ;
115 [label=<deaths &le; 10607.5<br/>gini = 0.56<br/>samples = 4<br/>value = [1, 0, 1, 0, 0, 0, 3]<br/>class = ME>, fillcolor="#f29cc2"] ;
114 -> 115 ;
116 [label=<gini = 0.0<br/>samples = 1<br/>value = [0, 0, 0, 0, 0, 0, 2]<br/>class = ME>, fillcolor="#e53986"] ;
115 -> 116 ;
117 [label=<confirmed &le; 1482778.0<br/>gini = 0.667<br/>samples = 3<br/>value = [1, 0, 1, 0, 0, 0, 1]<br/>class = AP>, fillcolor="#ffffff"] ;
115 -> 117 ;
118 [label=<gini = 0.0<br/>samples = 1<br/>value = [1, 0, 0, 0, 0, 0, 0]<br/>class = AP>, fillcolor="#e58139"] ;
117 -> 118 ;
119 [label=<recovered &le; 2101105.0<br/>gini = 0.5<br/>samples = 2<br/>value = [0, 0, 1, 0, 0, 0, 1]<br/>class = Arab>, fillcolor="#ffffff"] ;
117 -> 119 ;
120 [label=<gini = 0.0<br/>samples = 1<br/>value = [0, 0, 1, 0, 0, 0, 0]<br/>class = Arab>, fillcolor="#39e54d"] ;
119 -> 120 ;
121 [label=<gini = 0.0<br/>samples = 1<br/>value = [0, 0, 0, 0, 0, 0, 1]<br/>class = ME>, fillcolor="#e53986"] ;
119 -> 121 ;
122 [label=<gini = 0.0<br/>samples = 1<br/>value = [0, 0, 0, 0, 0, 2, 0]<br/>class = NA>, fillcolor="#b139e5"] ;
114 -> 122 ;
}
