digraph Tree {
node [shape=box, style="filled, rounded", color="black", fontname=helvetica] ;
edge [fontname=helvetica] ;
0 [label=<confirmed &le; 18669.0<br/>gini = 0.464<br/>samples = 85<br/>value = [85, 49]<br/>class = nontropic>, fillcolor="#f4caab"] ;
1 [label=<deaths &le; 5.0<br/>gini = 0.5<br/>samples = 48<br/>value = [38, 37]<br/>class = nontropic>, fillcolor="#fefcfa"] ;
0 -> 1 [labeldistance=2.5, labelangle=45, headlabel="True"] ;
2 [label=<deaths &le; 1.5<br/>gini = 0.219<br/>samples = 5<br/>value = [7, 1]<br/>class = nontropic>, fillcolor="#e99355"] ;
1 -> 2 ;
3 [label=<confirmed &le; 261.0<br/>gini = 0.5<br/>samples = 2<br/>value = [1, 1]<br/>class = nontropic>, fillcolor="#ffffff"] ;
2 -> 3 ;
4 [label=<gini = 0.0<br/>samples = 1<br/>value = [1, 0]<br/>class = nontropic>, fillcolor="#e58139"] ;
3 -> 4 ;
5 [label=<gini = 0.0<br/>samples = 1<br/>value = [0, 1]<br/>class = tropic>, fillcolor="#399de5"] ;
3 -> 5 ;
6 [label=<gini = 0.0<br/>samples = 3<br/>value = [6, 0]<br/>class = nontropic>, fillcolor="#e58139"] ;
2 -> 6 ;
7 [label=<deaths &le; 10.5<br/>gini = 0.497<br/>samples = 43<br/>value = [31, 36]<br/>class = tropic>, fillcolor="#e4f1fb"] ;
1 -> 7 ;
8 [label=<recovered &le; 392.0<br/>gini = 0.346<br/>samples = 5<br/>value = [2, 7]<br/>class = tropic>, fillcolor="#72b9ec"] ;
7 -> 8 ;
9 [label=<gini = 0.0<br/>samples = 2<br/>value = [0, 5]<br/>class = tropic>, fillcolor="#399de5"] ;
8 -> 9 ;
10 [label=<recovered &le; 1109.5<br/>gini = 0.5<br/>samples = 3<br/>value = [2, 2]<br/>class = nontropic>, fillcolor="#ffffff"] ;
8 -> 10 ;
11 [label=<gini = 0.0<br/>samples = 2<br/>value = [2, 0]<br/>class = nontropic>, fillcolor="#e58139"] ;
10 -> 11 ;
12 [label=<gini = 0.0<br/>samples = 1<br/>value = [0, 2]<br/>class = tropic>, fillcolor="#399de5"] ;
10 -> 12 ;
13 [label=<deaths &le; 24.0<br/>gini = 0.5<br/>samples = 38<br/>value = [29, 29]<br/>class = nontropic>, fillcolor="#ffffff"] ;
7 -> 13 ;
14 [label=<confirmed &le; 1184.0<br/>gini = 0.245<br/>samples = 5<br/>value = [6, 1]<br/>class = nontropic>, fillcolor="#e9965a"] ;
13 -> 14 ;
15 [label=<gini = 0.0<br/>samples = 1<br/>value = [0, 1]<br/>class = tropic>, fillcolor="#399de5"] ;
14 -> 15 ;
16 [label=<gini = 0.0<br/>samples = 4<br/>value = [6, 0]<br/>class = nontropic>, fillcolor="#e58139"] ;
14 -> 16 ;
17 [label=<confirmed &le; 7830.0<br/>gini = 0.495<br/>samples = 33<br/>value = [23, 28]<br/>class = tropic>, fillcolor="#dceefa"] ;
13 -> 17 ;
18 [label=<recovered &le; 1076.5<br/>gini = 0.499<br/>samples = 24<br/>value = [20, 18]<br/>class = nontropic>, fillcolor="#fcf2eb"] ;
17 -> 18 ;
19 [label=<recovered &le; 780.0<br/>gini = 0.375<br/>samples = 7<br/>value = [3, 9]<br/>class = tropic>, fillcolor="#7bbeee"] ;
18 -> 19 ;
20 [label=<recovered &le; 617.0<br/>gini = 0.5<br/>samples = 3<br/>value = [3, 3]<br/>class = nontropic>, fillcolor="#ffffff"] ;
19 -> 20 ;
21 [label=<gini = 0.0<br/>samples = 1<br/>value = [0, 3]<br/>class = tropic>, fillcolor="#399de5"] ;
20 -> 21 ;
22 [label=<gini = 0.0<br/>samples = 2<br/>value = [3, 0]<br/>class = nontropic>, fillcolor="#e58139"] ;
20 -> 22 ;
23 [label=<gini = 0.0<br/>samples = 4<br/>value = [0, 6]<br/>class = tropic>, fillcolor="#399de5"] ;
19 -> 23 ;
24 [label=<deaths &le; 38.0<br/>gini = 0.453<br/>samples = 17<br/>value = [17, 9]<br/>class = nontropic>, fillcolor="#f3c4a2"] ;
18 -> 24 ;
25 [label=<gini = 0.0<br/>samples = 3<br/>value = [5, 0]<br/>class = nontropic>, fillcolor="#e58139"] ;
24 -> 25 ;
26 [label=<confirmed &le; 4760.0<br/>gini = 0.49<br/>samples = 14<br/>value = [12, 9]<br/>class = nontropic>, fillcolor="#f8e0ce"] ;
24 -> 26 ;
27 [label=<confirmed &le; 3820.0<br/>gini = 0.492<br/>samples = 11<br/>value = [7, 9]<br/>class = tropic>, fillcolor="#d3e9f9"] ;
26 -> 27 ;
28 [label=<deaths &le; 60.5<br/>gini = 0.486<br/>samples = 8<br/>value = [7, 5]<br/>class = nontropic>, fillcolor="#f8dbc6"] ;
27 -> 28 ;
29 [label=<gini = 0.0<br/>samples = 2<br/>value = [0, 3]<br/>class = tropic>, fillcolor="#399de5"] ;
28 -> 29 ;
30 [label=<deaths &le; 66.0<br/>gini = 0.346<br/>samples = 6<br/>value = [7, 2]<br/>class = nontropic>, fillcolor="#eca572"] ;
28 -> 30 ;
31 [label=<gini = 0.0<br/>samples = 1<br/>value = [3, 0]<br/>class = nontropic>, fillcolor="#e58139"] ;
30 -> 31 ;
32 [label=<confirmed &le; 2055.5<br/>gini = 0.444<br/>samples = 5<br/>value = [4, 2]<br/>class = nontropic>, fillcolor="#f2c09c"] ;
30 -> 32 ;
33 [label=<gini = 0.0<br/>samples = 1<br/>value = [0, 1]<br/>class = tropic>, fillcolor="#399de5"] ;
32 -> 33 ;
34 [label=<deaths &le; 84.5<br/>gini = 0.32<br/>samples = 4<br/>value = [4, 1]<br/>class = nontropic>, fillcolor="#eca06a"] ;
32 -> 34 ;
35 [label=<gini = 0.0<br/>samples = 2<br/>value = [2, 0]<br/>class = nontropic>, fillcolor="#e58139"] ;
34 -> 35 ;
36 [label=<deaths &le; 108.5<br/>gini = 0.444<br/>samples = 2<br/>value = [2, 1]<br/>class = nontropic>, fillcolor="#f2c09c"] ;
34 -> 36 ;
37 [label=<gini = 0.0<br/>samples = 1<br/>value = [0, 1]<br/>class = tropic>, fillcolor="#399de5"] ;
36 -> 37 ;
38 [label=<gini = 0.0<br/>samples = 1<br/>value = [2, 0]<br/>class = nontropic>, fillcolor="#e58139"] ;
36 -> 38 ;
39 [label=<gini = 0.0<br/>samples = 3<br/>value = [0, 4]<br/>class = tropic>, fillcolor="#399de5"] ;
27 -> 39 ;
40 [label=<gini = 0.0<br/>samples = 3<br/>value = [5, 0]<br/>class = nontropic>, fillcolor="#e58139"] ;
26 -> 40 ;
41 [label=<confirmed &le; 9448.5<br/>gini = 0.355<br/>samples = 9<br/>value = [3, 10]<br/>class = tropic>, fillcolor="#74baed"] ;
17 -> 41 ;
42 [label=<gini = 0.0<br/>samples = 3<br/>value = [0, 5]<br/>class = tropic>, fillcolor="#399de5"] ;
41 -> 42 ;
43 [label=<confirmed &le; 11226.0<br/>gini = 0.469<br/>samples = 6<br/>value = [3, 5]<br/>class = tropic>, fillcolor="#b0d8f5"] ;
41 -> 43 ;
44 [label=<gini = 0.0<br/>samples = 2<br/>value = [2, 0]<br/>class = nontropic>, fillcolor="#e58139"] ;
43 -> 44 ;
45 [label=<confirmed &le; 14233.5<br/>gini = 0.278<br/>samples = 4<br/>value = [1, 5]<br/>class = tropic>, fillcolor="#61b1ea"] ;
43 -> 45 ;
46 [label=<gini = 0.0<br/>samples = 2<br/>value = [0, 3]<br/>class = tropic>, fillcolor="#399de5"] ;
45 -> 46 ;
47 [label=<recovered &le; 11844.5<br/>gini = 0.444<br/>samples = 2<br/>value = [1, 2]<br/>class = tropic>, fillcolor="#9ccef2"] ;
45 -> 47 ;
48 [label=<gini = 0.0<br/>samples = 1<br/>value = [1, 0]<br/>class = nontropic>, fillcolor="#e58139"] ;
47 -> 48 ;
49 [label=<gini = 0.0<br/>samples = 1<br/>value = [0, 2]<br/>class = tropic>, fillcolor="#399de5"] ;
47 -> 49 ;
50 [label=<confirmed &le; 400343.5<br/>gini = 0.324<br/>samples = 37<br/>value = [47, 12]<br/>class = nontropic>, fillcolor="#eca16c"] ;
0 -> 50 [labeldistance=2.5, labelangle=-45, headlabel="False"] ;
51 [label=<confirmed &le; 175788.5<br/>gini = 0.226<br/>samples = 35<br/>value = [47, 7]<br/>class = nontropic>, fillcolor="#e99456"] ;
50 -> 51 ;
52 [label=<recovered &le; 44615.0<br/>gini = 0.301<br/>samples = 27<br/>value = [31, 7]<br/>class = nontropic>, fillcolor="#eb9d66"] ;
51 -> 52 ;
53 [label=<deaths &le; 1155.0<br/>gini = 0.142<br/>samples = 16<br/>value = [24, 2]<br/>class = nontropic>, fillcolor="#e78c49"] ;
52 -> 53 ;
54 [label=<recovered &le; 10798.0<br/>gini = 0.219<br/>samples = 10<br/>value = [14, 2]<br/>class = nontropic>, fillcolor="#e99355"] ;
53 -> 54 ;
55 [label=<gini = 0.0<br/>samples = 1<br/>value = [0, 1]<br/>class = tropic>, fillcolor="#399de5"] ;
54 -> 55 ;
56 [label=<deaths &le; 881.0<br/>gini = 0.124<br/>samples = 9<br/>value = [14, 1]<br/>class = nontropic>, fillcolor="#e78a47"] ;
54 -> 56 ;
57 [label=<gini = 0.0<br/>samples = 8<br/>value = [14, 0]<br/>class = nontropic>, fillcolor="#e58139"] ;
56 -> 57 ;
58 [label=<gini = 0.0<br/>samples = 1<br/>value = [0, 1]<br/>class = tropic>, fillcolor="#399de5"] ;
56 -> 58 ;
59 [label=<gini = 0.0<br/>samples = 6<br/>value = [10, 0]<br/>class = nontropic>, fillcolor="#e58139"] ;
53 -> 59 ;
60 [label=<recovered &le; 53749.0<br/>gini = 0.486<br/>samples = 11<br/>value = [7, 5]<br/>class = nontropic>, fillcolor="#f8dbc6"] ;
52 -> 60 ;
61 [label=<gini = 0.0<br/>samples = 3<br/>value = [0, 4]<br/>class = tropic>, fillcolor="#399de5"] ;
60 -> 61 ;
62 [label=<confirmed &le; 122328.0<br/>gini = 0.219<br/>samples = 8<br/>value = [7, 1]<br/>class = nontropic>, fillcolor="#e99355"] ;
60 -> 62 ;
63 [label=<gini = 0.0<br/>samples = 7<br/>value = [7, 0]<br/>class = nontropic>, fillcolor="#e58139"] ;
62 -> 63 ;
64 [label=<gini = 0.0<br/>samples = 1<br/>value = [0, 1]<br/>class = tropic>, fillcolor="#399de5"] ;
62 -> 64 ;
65 [label=<gini = 0.0<br/>samples = 8<br/>value = [16, 0]<br/>class = nontropic>, fillcolor="#e58139"] ;
51 -> 65 ;
66 [label=<gini = 0.0<br/>samples = 2<br/>value = [0, 5]<br/>class = tropic>, fillcolor="#399de5"] ;
50 -> 66 ;
}
